#include "ap_int.h"

#define n_inputs 100
#define n_layer1 32
#define n_layer2 16
#define n_layer3 10

void hwmm_layer1(float input[n_inputs], const float weights[n_inputs][n_layer1], float output[1][n_layer1]);
void hw_act_layer1(float input[1][n_layer1], float output[1][n_layer1]);
void hwmm_layer2(float input[1][n_layer1], const float weights[n_layer1][n_layer2], float output[1][n_layer2]);
void hw_act_layer2(float input[1][n_layer2], float output[1][n_layer2]);
void hwmm_layer3(float input[1][n_layer2], const float weights[n_layer2][n_layer3], float output[1][n_layer3]);
void hw_act_layer3(float input[1][n_layer3], int &pred);
int nn_inference(float input_img[n_inputs]);


namespace weights{

	const float layer3_weights[n_layer2][n_layer3] = {{0.3064209, 0.2054038, 0.70563054, -0.63326603, 0.5866488, -0.30310446, 0.0033365104, -0.53532755, 0.6795436, -0.45050025}, 
			{-0.20815, 0.3169016, -0.51839316, -0.68405926, 0.7302859, -0.017075716, 0.3847316, -0.37128782, 0.29677036, 0.46749195}, 
			{-0.38862538, -0.85403466, -0.2562736, 0.37511393, 0.58659375, -0.84559923, -1.0418628, 0.030784097, 0.032166116, 0.49797288}, 
			{-0.32132384, 0.79222256, -0.33433208, -0.46600798, 0.41816822, 0.5792239, -0.85707223, 0.7747419, -0.8810607, 0.19713178}, 
			{-0.38335487, 0.59708273, 0.871558, 0.22050507, -0.6111455, -0.36597276, -0.83980095, 0.78122777, 0.35430324, -0.22499566}, 
			{0.6961343, -0.32163462, 0.41816932, 0.21479729, -0.23425028, 0.52818453, 0.08563126, -0.5038977, 0.13380738, -0.46653}, 
			{-0.69975173, -0.7205435, -0.3546435, -0.16652, 0.49611634, 0.53696984, 0.2575849, 0.45569238, 0.3229155, 0.23029312}, 
			{-0.5837123, 0.6275553, 0.9431412, 0.53230906, 0.35338193, -0.10424618, 0.6709431, 0.63275856, -0.4837824, -1.084196}, 
			{0.8156453, 0.2533846, 0.5433385, -0.5285049, -0.4225938, -0.115011096, -0.19726086, 0.809934, -0.07894063, -0.88291204}, 
			{-0.55494535, 0.6147554, -0.7580781, 0.5276426, 0.06563659, -0.054571636, -0.6453904, -0.86436224, -0.24330135, 0.15380974}, 
			{0.08110888, -0.42136833, 0.07968382, 0.42732173, -0.76796985, 0.36916432, 0.09058436, -0.066822685, 0.5934335, -0.20496522}, 
			{-0.32465956, 0.6177558, 0.46411443, 0.33745876, -1.1659015, 0.32559702, -0.62629575, 0.26262832, -0.21812731, 0.59123373}, 
			{0.67353886, -0.32945374, 0.3602657, -0.5709967, -0.2759491, -0.90186375, 0.47873336, -0.71663934, -0.5165343, 0.55558586}, 
			{0.101526536, 0.5846012, -0.9386653, -0.76142234, -0.0025766685, 0.6734161, 0.42028603, -0.8668591, 0.07039571, -0.11332654}, 
			{0.51463515, -0.47590572, -0.5867333, 0.41518292, 0.06982366, 0.14413579, 0.1352664, 0.58055454, -0.24244997, 0.4470614}, 
			{0.09872043, 0.23010394, 0.10916159, 0.19495085, -0.6008854, -1.2267721, 0.26154363, -0.29235578, 0.59914494, 0.12971826}};

	const float layer2_weights[n_layer1][n_layer2] = {{-0.44488966, -0.43249264, 0.17361403, -0.10204301, 0.17435364, 0.025119558, 0.040082663, -0.40721217, 0.41557926, 0.6098666, 0.58406895, 0.5014061, -0.47657996, 0.0065125, 0.15650809, -0.039794154}, 
			{-0.04812505, -0.6119804, 0.3668285, 0.67651796, 0.37702918, -0.7825874, 0.12339386, 0.8074705, 0.39531764, 0.50393206, -0.20346013, 0.012837912, -0.08595074, -0.692197, 0.61681587, 0.41099885}, 
			{-0.58219415, 0.08770834, -0.91627187, 0.91572607, 0.15938392, -0.047129583, -0.51911855, 0.65515363, 0.29244462, 0.6492366, -0.7094777, 1.1137556, -0.50706995, 0.9755705, -0.44763184, -0.5727071}, 
			{-0.0846196, 0.48048523, 0.20054018, 0.4318216, 0.50513226, -0.48998502, 0.28929883, -0.23227964, -0.21952124, -0.5036557, -0.16861707, 0.14478384, 0.28331354, 0.14728275, 0.2949308, 0.28524002}, 
			{0.016444238, -0.7664754, 0.087021045, 0.075764015, 0.6480912, -0.45431808, 0.6835447, 0.8049137, 0.42992836, -0.7191719, 0.17660767, 0.703433, -0.691709, -0.70072585, 0.22053912, -0.054298677}, 
			{0.86325794, 0.5532165, -0.25871393, 0.36579934, 0.532096, -0.5328924, -0.930167, 0.6067349, 0.38507414, 0.08790276, -0.50397813, 0.17251994, 0.46302006, -0.02894412, -0.7225245, 0.46807668}, 
			{-0.26643658, -0.17367806, 0.52646893, -0.38098955, 0.38727385, 0.2913101, 0.18452157, 0.3881988, -0.3044552, 0.7322545, 0.32928282, 0.6849066, -0.3663827, 0.04596477, -0.13322243, 0.12576585}, 
			{-0.0766967, -0.551309, -0.47359464, -0.07187328, -0.35694358, 0.48922288, -0.35197318, -0.4444246, 0.5204789, -0.20120619, 0.044780586, -0.2607653, 0.10615934, 0.53317845, -0.029564727, -0.81646156}, 
			{-0.0695816, 0.29241598, 0.16277884, -0.122919045, 0.24199016, 0.029640881, 0.21346422, -0.646169, 0.47532886, -0.0011686401, 0.39518538, 0.5127966, 0.3945201, 0.013583563, 0.49870488, 0.47436172}, 
			{-0.4257624, 0.22281964, 0.49402642, 0.69550645, -0.24111074, 0.09420648, 0.14457598, 0.06579485, -0.10422819, 0.2126006, -0.18793681, -0.30656254, -0.011454398, -0.23754162, 0.48047358, -0.27770722}, 
			{-0.72556204, 0.35733947, -0.9948842, 0.631722, -0.57385117, 0.117146306, -0.14123107, -0.16467871, 0.14710599, 0.4698933, 0.012340575, 0.1943964, -0.42145738, 0.98577255, 0.4061789, -0.570723}, 
			{0.50535625, -0.19887422, -0.17503312, 0.06332084, 0.6171304, 0.58255905, -0.14459743, -0.16416752, 0.13913348, -0.018342078, 0.54650354, 0.10782462, -0.2591622, 0.61347556, -0.2629377, 0.5161335}, 
			{-0.18555307, -0.6727937, 0.5182504, 0.22946648, 0.67930424, -0.3410527, -0.34614646, 0.3136282, 0.30211562, -0.31916988, -0.09355265, 0.78673965, 0.4130752, -0.5808841, 0.29255947, -0.2278874}, 
			{0.51952803, 0.17281796, -0.28420585, 0.39498505, -0.10004063, 0.2580575, 0.1851785, 0.74185085, -0.22261126, 0.06470588, -0.39336595, -0.6198736, -0.916344, 0.3293888, -0.3694821, 0.048222847}, 
			{-0.10791693, 0.07026362, -0.27132908, -0.79910326, 0.08361877, 0.21564533, 0.5474599, 0.27147627, 0.10395351, -0.19153693, 0.30029038, -0.013718433, 0.27087817, -0.30162492, -0.011791301, -0.0047140177}, 
			{-0.03863729, 0.27003103, 0.12645815, 0.02128132, -0.33396897, 0.011729083, -0.05202798, 0.28034243, -0.794251, 0.31067955, -0.095384605, 0.23239318, 0.67015547, 0.21017702, 0.12205234, 0.35669243}, 
			{0.022798153, -0.32134736, 0.057832353, -0.58637863, -0.12364033, 0.58390886, -0.5425231, 0.11215368, -0.16804445, 0.6257777, 0.33515278, 0.47761747, -0.42980748, 0.042045075, -0.17820317, 0.42613783}, 
			{0.30741787, -0.54967856, -0.34200457, 0.19616818, 0.4049099, 0.5309118, -0.2862703, 0.35696027, 0.62484163, -0.7035235, -0.13225596, 0.34503633, 0.4926761, -0.20307279, 0.14850764, -0.48062518}, 
			{0.24772896, -0.42741743, 0.22490075, 0.4969361, -0.124318995, 0.034149203, 0.26889503, -0.1746378, 0.50734925, -0.6352985, 0.008034255, -0.05032659, 0.35488808, -0.059822317, 0.41157407, 0.038914215}, 
			{0.017807027, -0.41825536, -0.005449187, 0.0018414869, 0.7727671, 0.2746962, -0.09200214, 0.4786798, 0.25603744, 0.40515527, 0.5359836, 0.3864518, -0.569396, -0.61993253, -0.34501442, 0.07159739}, 
			{0.30705264, 0.11653017, 0.24227096, 0.68100446, -0.26429626, -0.32954273, 0.68255496, -0.19137181, -0.32541686, 0.11697815, -0.2647711, -0.008693294, -0.9313899, 0.13718262, -0.14652954, -0.36601135}, 
			{0.4959151, 0.44592145, 0.25471616, -0.16213727, -0.4217356, -0.2784762, 0.42572302, 0.3688867, -0.48520035, -0.18650642, 0.19315347, -0.71137655, 0.3540875, 0.034069814, 0.15350433, 0.079532064}, 
			{-0.62042195, 0.5182709, -0.072403416, 0.30847797, -0.5042571, -0.056765046, 0.6914577, -0.5351223, 0.10916765, 0.16820668, -0.1778402, 0.28723097, -0.39109978, 0.7190729, 0.6166861, -0.25132507}, 
			{0.22070034, 0.35278973, 0.6764923, -0.19723992, 0.027248506, 0.41020045, 0.5371048, -0.35147285, 0.17840663, 0.008245981, 0.29245004, -0.015121129, 0.22896515, -0.34315506, 0.38669935, 0.05918101}, 
			{-0.18620493, 0.4626893, 0.5507892, 0.58896405, 0.27977142, -0.8699918, -0.13720478, -0.12141439, -0.19126411, 0.62480813, -0.24031039, 0.29003897, -0.58695, 0.040994234, 0.17843671, 0.6907245}, 
			{0.14354146, 0.67514056, 0.75912225, 0.33944795, -0.117254674, -0.48355085, 0.42931885, -0.88632405, 0.18839729, 0.2496945, -0.4278881, 0.33787632, 0.19967543, 0.4969041, 0.21368267, 0.15149006}, 
			{0.5293638, 0.6386616, -0.21388145, -0.6551151, -0.3359982, 0.47850505, 0.41108468, 0.45006517, -0.27101308, -0.5392499, 0.40405986, 0.066404454, 0.13997741, 0.6454224, 0.15659206, -0.022380818}, 
			{0.28777272, -0.15681675, 0.34290102, 0.2050701, 0.568268, 0.4839901, 0.39915425, 0.2689665, -0.3347522, 0.35169962, 0.6068894, -0.21825269, 0.47895372, 0.21119113, -0.059808955, 0.08442579}, 
			{-0.61062187, -0.63889146, -1.1325189, -0.5387399, 0.08845483, 0.4769466, -0.56362236, 0.96174055, -0.05257188, -0.1076827, 0.4129475, -0.25821367, 0.25294238, -0.19430509, -0.02584875, 0.13476315}, 
			{-0.064367816, 0.008118453, 0.18969682, -0.28331557, -0.40037575, 0.40593898, -0.39203095, 0.25207716, 0.21162224, 0.25160837, 0.36098403, -0.080061026, 0.112572946, 0.16260527, 0.6824531, -0.48137036}, 
			{0.34921327, 0.8339931, -0.30703852, 0.29362577, -0.45370638, -0.4034516, 0.0542221, 0.44514775, 1.0359116, -0.81551576, -0.51653695, -0.7047016, 0.77310693, 0.5335318, 0.5403827, 0.32525092}, 
			{0.580599, 0.23617949, 0.7060676, 0.7936671, 0.3590726, 0.32148784, -0.61906314, 0.6104599, -0.18318637, -0.043372203, -0.7553427, 0.29184836, 0.45092422, -0.29335102, -0.39415136, -0.18353486}};

	const float layer1_weights[n_inputs][n_layer1] = {{-0.062193323, 0.57688427, -0.30060446, 0.21587288, 0.26395267, -0.20228645, 0.16833098, -0.39529487, -0.40892905, -0.04271097, -0.2319546, -0.21804164, 0.43063617, 0.08666213, 0.008681615, -0.36663654, -0.14347683, 0.0024465164, -0.16524571, 0.26968938, 0.23190098, -0.12641813, -0.2697215, 0.28934515, 0.19263081, -0.43039992, -0.20420012, 0.019330474, 0.084003575, -0.2676412, -0.27883595, 0.1638124},
			{-0.08215612, 0.42885202, -0.28575256, -0.23512813, 0.31364974, -0.06069075, -0.20903179, -0.06436298, -0.4290075, -0.096137084, -0.012116517, -0.21304695, 0.38905865, 0.39922267, 0.39405736, -0.2971635, -0.17953321, 0.019524377, 0.20630842, 0.120158456, 0.17758475, 0.31679425, -0.40775487, 0.068181716, -0.17259964, -0.22019581, -0.06973571, -0.22130789, -0.06666461, 0.043606456, -0.36280212, 0.13022904}, 
			{-0.022376854, 0.18956736, -0.099527255, 0.2764318, 0.17031693, -0.16302885, -0.0721854, -0.15805277, 0.18599623, 0.09809753, -0.026154771, -0.35567176, 0.11435566, -0.35453755, 0.66094935, 0.13531323, -0.21289659, 0.05480098, -0.04535397, 0.16362613, -0.15264386, 0.39178765, -0.022239504, 0.11522966, -0.08715026, -0.36606094, 0.25588086, -0.20934421, 0.5266102, 0.117667474, -0.17109837, -0.38062334}, 
			{-0.64907044, -0.41021562, 0.2984459, 0.30267647, -0.26062083, -0.097955324, -0.55821294, 0.023481075, -0.10930568, 0.40672502, -0.14045969, -0.34410262, -0.46743417, 0.7084293, 0.24464235, 0.3539183, -0.42757142, 0.31502995, 0.24689427, -0.08132897, -0.04869048, 0.4690084, 0.12300346, 0.034353662, -0.16301814, 0.23500536, 0.45238402, 0.23157857, 0.69787544, 0.13537528, 0.30898288, -0.032021757}, 
			{-0.5959734, -0.15855187, 0.47600195, 0.2728349, -0.31269348, 0.32225597, -0.42363387, -0.27635875, 0.09956128, -0.22570983, -0.6016448, -0.28456497, -0.59930617, 0.40636915, 0.477586, 0.4970202, -0.22210878, 0.3552645, -0.16081885, -0.059532605, -0.47092637, 0.5883183, 0.073024474, -0.43334314, -0.087997854, 0.08344906, 0.68098116, 0.20945297, 0.7266235, 0.16040944, 0.39933747, -0.31220362}, 
			{-0.35192722, -0.028943637, 0.4651941, 0.37327617, -0.1004385, 0.5494734, 0.075127944, -0.14931104, -0.30581605, 0.124273255, -0.4478283, -0.18914473, -0.5967854, 0.1855085, 0.3596176, 0.35988045, -0.2983463, 0.10958576, 0.0015606396, 0.29363903, -0.24512471, 0.17729817, 0.35086927, -0.4931092, 0.1936446, -0.37971622, 0.30999163, 0.36420184, 0.39009607, -0.004964305, 0.46037376, -0.038470183}, 
			{-0.25595096, -0.10651059, 0.1095903, 0.13916592, 0.29589766, 0.12131108, -0.23735449, -0.004649067, -0.17041658, 0.23359115, 0.12761112, -0.23699221, -0.5029037, 0.2085977, 0.07892105, 0.38894528, -0.31064168, -0.23969643, 0.14016671, -0.298644, 0.2882475, 0.31239942, 0.26542774, -0.09661651, 0.015430846, -0.0812239, 0.32407185, 0.27667445, 0.43933386, 0.20605654, 0.20891948, -0.21588987}, 
			{-0.5436047, -0.15625523, -0.057236142, 0.3072624, 0.013988771, -0.15265521, -0.55417824, 0.167926, -0.17870273, 0.36459252, -0.14660214, -0.22311302, -0.6184241, 0.399198, 0.23878269, 0.37502363, -0.25250342, -0.20303664, 0.053694893, -0.32914516, 0.38589245, 0.60753226, 0.62771636, 0.07771285, -0.17742598, -0.20213595, 0.51543546, 0.22436167, 0.047063734, 0.21973257, 0.43465084, -0.042805083}, 
			{-0.22571975, -0.10951558, -0.078344844, 0.49191895, -0.0055027604, -0.4107016, -0.156058, 0.34342536, -0.16118734, 0.44807658, 0.07071471, 0.03508035, -0.31170094, 0.6368991, 0.40277493, 0.009964769, -0.2991384, 0.03236199, 0.36338824, -0.20464809, 0.34258178, 0.63611984, 0.28708777, 0.19217342, -0.06652627, 0.12165559, 0.6688517, 0.26708856, 0.035581302, 0.24769743, 0.052133463, 0.3294854}, 
			{0.46007133, -0.013237729, 0.8364608, -0.4328831, 0.15452333, -0.64242715, 0.3919258, 0.2280155, -0.32525352, -0.11445626, 0.1683639, 0.5957813, -0.56741184, 0.4897665, 0.27909923, -0.36217263, 0.28409684, -0.36386544, -0.22332697, 0.2853683, 0.6039535, -0.010911158, 0.47420138, -0.24724789, -0.11929557, -0.09439352, 0.34285972, 0.4483042, -0.59530276, 0.055722274, -0.64294755, -0.37973264}, 
			{0.1119068, 0.65628576, -0.13437629, -0.13472275, 0.09327871, -0.1666073, -0.035835013, -0.37581968, -0.47621563, 0.5440886, 0.115311354, -0.47097048, 0.46232933, 0.2715106, -0.024746139, -0.5264307, 0.12450669, 0.037931383, -0.129511, 0.31277606, 0.18762451, -0.097247906, -0.33756128, 0.04804272, 0.051382992, -0.34860444, -0.24415298, -0.3239354, 0.14658384, -0.07185887, -0.47459373, -0.06211946},
			{0.21858592, 0.31828877, 0.121888936, -0.092087746, -0.027965378, -0.09231639, 0.54425144, -0.76778316, -0.38855153, 0.44776887, 0.05549949, -0.31804624, 0.1787885, 0.0957419, 0.11545448, 0.52282023, 0.18453027, -0.17226437, -0.51682216, 0.04913387, 0.19580129, -0.035001174, -0.5406214, -0.24624178, 0.002521784, -0.36896217, -0.3691041, -0.34170306, 0.34230283, -0.017618613, -0.4315661, 0.020470383}, 
			{0.22722602, 0.41086844, -0.12327842, 0.0003753626, -0.05012605, -0.080881365, 0.43488166, -0.600112, -0.01863666, 0.15402064, -0.032465313, -0.56639767, 0.17743959, -0.17797707, 0.32986397, 0.44328704, 0.15261634, 0.087191865, -0.3040624, 0.2195194, -0.019279433, 0.13655275, -0.4776722, 0.042476457, 0.019410312, -0.52091867, 0.250926, -0.25229993, 0.30461457, 0.29062715, -0.19499557, 0.0800558}, 
			{-0.23958264, 0.2805492, 0.052768532, -0.32123634, -0.5091848, 0.008402434, 0.21675816, -0.09764567, -0.22831553, -0.056259066, -0.64283377, -0.14687228, -0.07950904, -0.07038706, 0.37957507, 0.48044807, 0.23093706, 0.16507079, -0.113537095, 0.3567877, -0.15361108, 0.18202133, -0.14180303, 0.24052243, 0.06926438, -0.5713808, 0.568798, 0.115304425, 0.7044575, 0.12966962, -0.49936798, 0.023968358}, 
			{-0.026267815, 0.102098376, 0.18797298, -0.067683525, -0.51269877, -0.026617764, 0.29854682, -0.21452734, 0.348216, -0.23231132, -0.65170336, 0.08706471, -0.27995124, -0.0520128, 0.055739347, 0.31284818, 0.41524825, 0.15648428, 0.03081581, 0.25014198, -0.2747256, 0.09121171, -0.0146070635, 0.19724756, 0.23676206, -0.4832868, 0.17522831, 0.38018876, 0.19404648, 0.27521786, -0.22587039, 0.052855637}, 
			{-0.06561148, -0.033678733, 0.14080165, -0.227092, -0.36591345, 0.05886754, 0.362293, 0.07154332, -0.010876796, -0.29541433, -0.25122043, 0.20760278, -0.60590273, 0.21569973, 0.23999909, 0.28845313, 0.26358324, 0.25765222, 0.016621921, 0.18959753, -0.36224112, 0.19429606, -0.10641585, 0.0590718, 0.45431778, -0.12781577, 0.14932823, 0.05023543, 0.006172844, 0.33727926, -0.20813717, 0.06873602}, 
			{-0.049121007, -0.33929902, 0.17283516, -0.29617774, -0.16700006, -0.27745125, 0.12891725, 0.1249489, -0.166315, 0.018550023, -0.15505168, -0.1862462, -0.52165467, 0.19065453, 0.3852799, -0.027476747, 0.086428314, 0.13671134, -0.4665153, 0.45598736, -0.41799313, 0.33655995, 0.08185134, 0.28018737, 0.21835391, -0.28345206, 0.34090322, 0.20131038, 0.010673915, 0.33577758, 0.11569464, 0.21184783}, 
			{0.011070676, -0.6995766, 0.2647247, 0.10336858, -0.19986646, -0.036971416, 0.18230154, 0.0972757, -0.11087707, -0.18292063, 0.057341326, -0.15238513, -0.49980003, 0.25607446, 0.1951127, 0.32791048, 0.11582933, -0.25401828, -0.4604247, -0.06693558, -0.48865685, 0.3508528, 0.20707415, -0.2938085, -0.008889878, 0.02904877, 0.3902285, -0.15504487, -0.004715477, 0.18649612, 0.21661729, -0.025006292}, 
			{-0.42013386, -0.46076366, 0.086289555, 0.11841895, -0.0554701, -0.16379797, 0.14254591, 0.3488863, -0.49884057, -0.035476446, 0.23522438, -0.25836825, -0.73974, 0.4766143, 0.40436116, -0.2323651, -0.21734236, -0.2103285, -0.2999713, -0.061173055, -0.035154704, 0.28877023, 0.3684127, -0.17970148, -0.1008839, -0.12819318, 0.6702914, 0.07856777, -0.2187097, 0.14418212, 0.39382192, -0.024422335}, 
			{0.32949945, -0.17148128, 1.0118701, -0.111547485, 0.32881102, -0.41568258, 0.42665255, 0.22300911, -0.23507985, -0.11090909, -0.4415217, 0.41021463, -0.6612351, 0.28901404, 0.6066449, -0.29859152, 0.24276781, -0.2176793, -0.4502873, 0.27681047, -0.050066717, 0.3332805, 0.36171865, 0.06463112, -0.23928387, -0.10932092, 0.7581904, 0.2891926, -0.022247706, -0.036731247, -0.047520116, -0.461557}, 
			{0.21283703, 0.5015165, -0.06399246, 0.15414017, 0.4762121, -0.1399381, 0.26578164, -0.4539215, -0.4919086, 0.32870325, -0.038216304, -0.2126463, 0.49802703, 0.54295075, 0.14879842, -0.32008326, -0.30593053, 0.0056337416, 0.4864378, 0.04552568, 0.5434982, -0.15823916, -0.2754293, -0.035831, -0.15212701, -0.7672466, -0.413224, -0.25542614, 0.32931778, 0.11128444, -0.37273702, 0.3799988},
			{0.15725037, 0.4113329, -0.22018586, -0.036646258, 0.2952228, -0.16771682, 0.15390748, -0.28562087, -0.6645797, 0.14623532, -0.070946105, -0.3862381, 0.22814289, 0.17471717, -0.012293733, -0.15794875, -0.1456063, -0.12039667, -0.09945664, 0.1507256, -0.10087343, 0.034707263, -0.44102597, 0.3504234, 0.089929126, -0.36889637, -0.2393814, -0.07976998, 0.1592698, 0.14285871, -0.49789777, 0.2361154}, 
			{-0.06454869, 0.21149234, -0.05094039, -0.14135922, 0.2415943, -0.09171017, 0.21080093, 0.11204465, -0.25561592, 0.056028094, 0.05703486, -0.13673939, 0.21786648, 0.16478498, 0.34830773, -0.3646573, -0.0035625403, -0.049403243, -0.045412887, -0.008982484, 0.48814717, -0.004076349, -0.3744886, 0.23808846, -0.026449585, -0.62428033, 0.0450077, 0.019931963, -0.29612032, 0.23927002, -0.3901647, -0.042551197}, 
			{0.27022713, 0.16461022, -0.084529296, 0.2960688, 0.32058334, -0.30775496, 0.2638447, 0.12544324, 0.29389185, 0.2054773, -0.27205276, 0.062706985, 0.3287157, 0.062319778, 0.3063045, -0.37947577, 0.043920204, 0.014320607, 0.0014216522, 0.167684, 0.26275402, -0.068033904, 0.03153811, 0.13182698, -0.12608133, -0.2805762, 0.3477769, -0.26342002, -0.44640896, 0.28815526, -0.1053566, 0.1703093}, 
			{0.2697428, -0.26664543, 0.36723474, 0.29750663, 0.24870329, 0.075848855, 0.3923295, 0.21283749, 0.45678702, -0.042261705, -0.49384466, 0.043399155, 0.3197673, -0.1253616, 0.17278032, 0.12811115, 0.16549292, 0.3281987, -0.052092943, 0.17089991, 0.005463343, -0.11305586, 0.3228757, 0.39008868, -0.037835535, -0.05037627, -0.044647787, -0.04065822, -0.4719027, 0.044382486, 0.10333775, -0.045331303}, 
			{0.18347901, -0.06281609, 0.21800977, 0.29184142, 0.06730066, -0.08745265, 0.3368933, 0.2084751, 0.40603107, -0.0006245719, 0.055327892, 0.053235643, 0.36426264, -0.61225694, 0.18932302, 0.42586786, 0.222207, 0.399064, 0.06878147, 0.24439104, -0.18699865, 0.007076333, 0.19620141, 0.32732612, 0.19985867, 0.32261515, 0.0698104, 0.26360294, -0.45894277, 0.072123975, 0.03131669, -0.11289552}, 
			{0.24954712, 0.041211423, 0.052276414, 0.16063116, 0.26762667, -0.19566514, 0.27418694, 0.27454042, 0.30877367, 0.19829784, -0.25917774, 0.31848174, -0.09747064, -0.21859834, -0.11383284, 0.35972086, 0.33408156, 0.35810688, 0.11920051, 0.0820058, -0.07754406, -0.36197427, 0.17176771, 0.45837724, -0.045477286, 0.21463753, 0.1498398, 0.02826644, -0.36609998, 0.28475964, -0.055396616, 0.28482544}, 
			{0.14336532, -0.3683555, 0.18853985, 0.19797906, 0.21299732, -0.03167256, 0.042549346, 0.2898797, 0.27385768, -0.030455139, -0.03345298, 0.029690763, -0.22553208, 0.033029802, -0.031400427, -0.2287035, 0.20964351, 0.14042862, 0.36012915, 0.24941535, 0.19284971, -0.19102359, 0.20616055, 0.1244638, 0.23607928, 0.010293471, 0.17748629, 0.38620698, -0.5177549, 0.19709384, 0.10636819, 0.4079997}, 
			{0.05551502, -0.39229643, 0.20135766, 0.16325352, 0.40624118, -0.17400204, -0.17454064, 0.16899762, -0.20462479, -0.10893678, -0.081121296, 0.30365345, -0.7943256, 0.530827, -0.20881088, -0.114149146, 0.21824178, 0.00971862, 0.29632565, 0.0389064, 0.26470867, 0.13999858, 0.37619892, 0.036623288, -0.17972668, 0.1635802, 0.4602661, 0.20118934, -0.531932, 0.20343065, 0.3001977, 0.11969976}, 
			{0.1277274, -0.2291058, 0.7588643, -0.24593274, 0.39692855, -0.65122414, 0.2385553, 0.07522221, -0.13060611, -0.07367667, -0.37838718, 0.45259032, -0.5230143, 0.94987893, 0.28672418, -0.03784655, 0.39174813, -0.3134867, -0.0076814005, -0.020490613, 0.4461913, 0.06836282, 0.42025727, -0.29941252, -0.22104858, 9.1090806e-05, 0.74451333, 0.23009272, -0.10817236, 0.031496387, -0.47281393, -0.60241884}, 
			{0.47588253, 0.7348635, -0.034769632, -0.27238965, 0.5562682, 0.3262739, 0.29714012, -0.62450457, -0.58864486, -0.107900865, -0.24622715, 0.42800832, 0.7928812, -0.0153227225, 0.67648333, -0.26657233, 0.035237774, 0.6634766, 0.38645482, 0.8176642, -0.4283293, -0.5772457, -0.5089598, -0.3274932, -0.105278805, -0.746087, -0.6390341, 0.27644417, 0.42773023, -0.56677496, -0.78084636, 0.8416509},
			{0.3354179, 0.36584038, -0.14976518, 0.16641848, 0.111636914, -0.13223839, 0.24825157, -0.31528008, -0.33519414, -0.1294543, 0.09648475, 0.081519805, 0.1074487, 0.25365424, 0.281366, -0.42619833, -0.03297548, -0.114709176, 0.44343334, 0.048032757, -0.14152358, -0.22534409, -0.5400424, 0.16287784, -0.19369277, -0.84567523, -0.477131, 0.1211544, 0.14397314, -0.0694526, -0.31811512, 0.41580814}, 
			{0.15793863, -0.03309075, -0.1285906, 0.3298037, 0.3183496, 0.20739852, 0.30955052, 0.117001325, 0.3288806, 0.020121686, 0.03873069, 0.32683933, -0.09550636, 0.03941593, 0.42771897, -0.027472943, -0.06337978, -0.47218943, 0.147144, -0.647238, 0.3153904, -0.21484324, -0.44062927, 0.22828345, -0.22766306, -0.44759375, -0.03403418, 0.046224393, -0.15778309, -0.1885371, -0.7571703, -0.2278956}, 
			{0.2941308, -0.1162197, 0.19745024, 0.30690762, 0.34528452, 0.124514185, -0.19731449, 0.25515682, 0.2537086, -0.12627554, -0.4618568, 0.28161186, 0.12000769, -0.004105296, 0.3107788, -0.009112053, -0.042808443, -0.011214108, -0.0019562263, -0.47630185, 0.28276077, 0.13510439, 0.22341172, 0.27719304, -0.2180488, 0.0029214323, 0.42160645, 0.1861732, -0.2870602, -0.3406132, -0.12500769, -0.008916653}, 
			{0.40434068, 0.22902389, 0.6623958, 0.14613336, 0.25026256, 0.15764233, 0.023995247, 0.4014702, 0.42453113, 0.05816938, -0.32060426, 0.5644526, 0.2860198, 0.13977747, 0.21510099, -0.120458655, -0.06302545, -0.09591866, 0.29536194, -0.60164773, -0.0025127628, -0.037024494, 0.37383974, 0.29827917, -0.28208217, 0.4413253, -0.13014501, 0.27226883, -0.38391638, -0.09967154, 0.37700817, -0.1838599}, 
			{0.34308976, 0.54674995, -0.101390965, 0.14274803, 0.16775976, 0.39105746, 0.05135924, -0.016472196, 0.39102843, 0.25259292, 0.66288793, 0.5455994, 0.45247823, -0.14694995, -0.37005317, -0.024563339, 0.13840997, 0.3003845, 0.2417855, -0.17076151, -0.27802432, -0.17168948, -0.05331973, 0.01139063, 0.34311765, 0.20039587, -0.54088485, 0.25442004, 0.26031652, 0.10304428, 0.12658112, -0.63233364}, 
			{0.011045164, 0.078748085, -0.56650275, -0.025538588, 0.13481371, -0.062633574, -0.15290225, 0.061247848, 0.2225461, 0.19744329, 0.19991922, 0.035141774, 0.139853, -0.007512769, -0.3429469, -0.24204935, 0.0030998858, 0.45741287, 0.47915766, 0.21512088, 0.14715198, -0.29039237, -0.14913307, 0.41968742, 0.26506394, -0.21185158, -0.39706305, 0.2180908, -0.38008085, 0.3783822, -0.020147018, 0.42189744}, 
			{0.42015776, -0.16291927, -0.44483525, 0.026606536, 0.12338681, -0.39381203, 0.10863915, -0.15518396, 0.4078442, 0.08693128, 0.24968731, 0.1353853, -0.22734503, -0.14783935, -0.01975962, -0.20052871, 0.20120065, 0.13342981, 0.35198548, 0.12774496, 0.30079472, -0.10993075, -0.35231346, 0.30365342, -0.08600444, -0.29242212, -0.012498755, 0.097244784, -0.089454524, -0.0006097781, -0.080810994, 0.15595476}, 
			{0.2982852, 0.047946975, 0.046112277, -0.1067159, 0.42615297, -0.43842572, -0.035961207, 0.40083906, 0.44734424, -0.1069399, 0.5055279, 0.52467734, -0.36101702, 0.14935797, 0.0966018, -0.39577705, 0.08620901, -0.06198807, 0.5267408, 0.17919259, 0.3831492, -0.107250944, 0.13964379, 0.29917556, -0.4341255, 0.17527986, 0.16213557, 0.27543595, -0.4815528, 0.1575309, -0.5750569, -0.24295291}, 
			{0.6606764, -0.40081164, 0.7737188, -0.31607783, 0.20955023, -0.22376496, 0.4168771, 0.30975065, -0.7429, 0.021968702, 0.8014912, 0.8254095, -0.47435376, 0.9193854, 0.013600672, -0.43005285, 0.27760857, -0.26366383, -0.00076318823, 0.5193052, 0.7459008, -0.460133, 0.49054483, -0.30570737, -0.5258238, -0.1378466, 0.7485657, 0.8044946, -0.5379018, 0.46600127, -0.8887337, -0.53697306}, 
			{0.40522912, 0.591958, 0.08963895, 0.028146602, 0.35814473, 0.44089156, 0.44731617, -0.83384633, -0.4989803, -0.2429106, -0.13288808, 0.54087335, 0.5375167, 0.2727061, 0.7246036, -0.61268437, 0.052480336, 0.2861656, 0.36727324, 0.42865357, -0.28712696, -0.49201775, -0.86791974, -0.40775013, -0.25874013, -0.8115079, -0.7246037, 0.3749705, 0.59409183, -0.4965661, -0.7831233, 0.8118282},
			{0.1916805, 0.17858477, -0.010090484, -0.15837346, -0.086622864, 0.1947807, -0.28942788, -0.08427646, 0.16917266, 0.028269175, -0.32295945, -0.24311078, 0.08221182, -0.018046428, 0.14892076, -0.2091301, -0.22162858, -0.66559535, 0.46690342, -0.703755, 0.19382766, -0.07985804, -0.40723598, 0.080860406, -0.43728042, -0.739817, -0.11824729, -0.22976905, 0.18014038, -0.22404733, -0.39100108, -0.3112813}, 
			{0.005389268, -0.03607951, -0.01141894, 0.29041302, -0.23180902, 0.3119894, -0.36442804, 0.23263729, 0.53628963, 0.21362099, -0.5868943, 0.052788034, -0.26931414, 0.076956995, -0.2867955, 0.35418332, -0.21606301, -0.29427388, 0.1998602, -0.43623263, 0.4011171, 0.049920388, 0.10425061, 0.24460611, -0.41146928, -0.050922252, 0.08408346, -0.67421854, 0.010732235, 0.0631587, -1.0668262, -0.34365296}, 
			{-0.22577298, -0.066716105, -0.015010693, 0.0047502364, -0.3667828, -0.3863932, -0.19123933, 0.04575017, 0.19911112, 0.2627965, -0.2892479, -0.27434173, -0.23676093, 0.37203017, -0.13102372, -0.17523023, -0.18606102, -0.22378844, 0.5528424, -0.46682495, 0.47556648, 0.1746505, 0.18144177, 0.2624853, 0.15568407, 0.26169795, -0.05080599, -0.1876897, 0.021765508, 0.15978108, -0.17823827, -0.22762807}, 
			{0.24618784, 0.1727866, 0.0051737046, -0.27832082, -0.7850871, -0.23319942, 0.2749291, 0.15778272, -0.2601231, 0.3487896, 0.3651592, 0.23189038, -0.3532184, 0.4287547, 0.22745462, -0.24496678, 0.29657853, -0.5108165, -0.15310161, -0.30197605, 0.29404053, 0.3659154, 0.030638434, 0.4614255, -0.107324086, 0.16925558, 0.11162619, 0.39198762, 0.2524661, 0.34524003, 0.4825439, -0.1418684}, 
			{0.27602357, 0.33239162, -0.55374366, 0.33289596, -0.37005025, 0.34577414, 0.11670658, -0.58875334, -0.060285736, 0.40578467, 0.29872864, 0.254452, -0.033211187, 0.45913112, -0.29520687, 0.15843958, 0.21427207, -0.50403595, -0.18980612, 0.30411908, 0.31384018, 0.033354267, 0.17587793, -0.08342482, 0.54352415, 0.16916344, -0.19446592, 0.1183029, 0.32755777, -0.28429624, 0.07289827, -0.6213285}, 
			{0.1705586, -0.048936963, -0.07168447, 0.23002496, 0.09761104, 0.06269277, -0.050517403, -0.3001513, 0.2895707, 0.18445253, -0.41626447, -0.3316627, 0.014475436, -0.12318855, 0.11438392, 0.19491729, -0.010325558, -0.396795, 0.12730145, 0.010695845, -0.082447775, 0.13159072, 0.07208417, 0.1452863, 0.3765466, 0.2688396, -0.23636122, -0.07709818, 0.16438895, -0.1401614, 0.11098072, 0.35236412}, 
			{-0.11250751, 0.24346758, -0.5165863, 0.35168332, -0.25501642, -0.6020641, -0.4959584, -0.27498803, 0.45548162, -0.09320317, -0.68688303, 0.07266633, -0.2871082, -0.40218753, 0.2781743, 0.21521999, -0.078387864, -0.38442922, 0.2894734, -0.12553377, -0.062809885, 0.016400715, -0.23059405, 0.23972315, -0.0015793738, 0.05467118, -0.21631096, -0.1713254, 0.26652482, 0.00992318, 0.10102586, 0.09751073}, 
			{-0.27251267, 0.06759561, -0.8985178, 0.10079926, -0.33910704, -0.21164471, -0.41906556, 0.2202198, 0.43617055, 0.047555897, -0.3429681, 0.13115853, -0.20811483, -0.38059974, 0.15031719, 0.22694686, -0.72715014, 0.088370934, 0.46195266, -0.401606, -0.04757583, 0.21518105, -0.63118696, 0.06765008, -0.23590499, 0.10023936, 0.42263475, -0.016312232, 0.6329626, 0.07569101, -0.9435255, -0.13917412}, 
			{0.35209394, 0.33317575, 0.42869017, -0.83033323, 0.47511888, 0.3525907, 0.12767372, 0.5395281, -0.7142999, -0.5415347, 0.4487464, 0.54191154, 0.22239788, 1.0395049, -0.08920186, -1.0835869, -0.072540864, 0.31849968, -0.25727528, 0.642463, 0.6849103, -0.4919224, -0.16463502, -0.62485224, -0.74304444, -0.637836, -0.093772374, 0.881036, -0.1260312, -0.21494713, -0.98102003, -0.026894875}, 
			{0.28571692, 0.80903596, 0.4475695, -0.24610282, 0.31583875, 0.25506514, 0.48609817, -0.5015691, -0.81406933, 0.13857234, 0.07167166, 0.39105192, 0.72741395, 0.62220335, 0.081196785, -0.647349, 0.23200351, 0.38909623, 0.17439304, 0.5150797, -0.04944668, -0.4243516, -0.5175533, -0.3370598, -0.07252717, -0.9906015, -0.5699558, 0.48521885, 0.28543216, 0.08720232, -0.7172906, 0.52691984},
			{0.07594108, 0.40669677, -0.1843981, -0.004170907, -0.47250035, 0.06325763, -0.2871242, -0.036810093, -0.22362247, 0.4387779, 0.18648233, -0.6021911, -0.46590158, 0.1447095, -0.19991171, 0.36076838, -0.1261057, -0.15756868, 0.3315654, 0.15705137, -0.14214899, -0.2918069, -0.26595008, -0.0647501, -0.08824748, -0.5889403, -0.12365027, -0.22164267, 0.18174268, -0.003652014, -0.7278155, 0.34168833}, 
			{-0.14469865, 0.005129988, 0.058763377, 0.09813718, -0.38980553, -1.1249299, -0.7225191, 0.08999735, 0.13741398, 0.35462588, -0.09406954, -0.38000348, -0.0794781, 0.20700978, -0.037457515, 0.33861348, -0.36018524, 0.22038393, 0.307306, 0.007663462, 0.007193714, 0.10947219, -0.28507695, 0.08515072, -0.44946346, -0.15497436, 0.0665101, -0.36085638, 0.10206372, 0.15203805, -0.6829325, 0.36235762}, 
			{-0.048653647, 0.036370404, 0.020707471, 0.14764525, -0.38730353, -0.54807574, -0.22577734, 0.21619272, 0.10717015, 0.35223085, -0.20380163, -0.033048663, -0.057974733, 0.09140168, 0.06459168, 0.47518897, -0.18445048, 0.37391755, 0.25868478, 0.050317835, 0.22792609, 0.28834242, 0.18562391, 0.21764198, -0.25064102, -0.16637628, 0.08952253, 0.12230973, 0.15113011, 0.20254396, 0.43420604, 0.46196035}, 
			{-0.2538599, 0.10006426, -0.108816355, -0.14476655, -0.32511163, 0.019767057, 0.58671486, -0.2028746, -0.05981213, -0.08636474, 0.11785374, 0.3637014, -0.17287782, 0.41111758, 0.26323408, 0.56587505, 0.45494774, -0.11017229, -0.14565156, 0.42624316, 0.20385249, 0.40995535, 0.05284395, 0.19993941, -0.064559855, 0.25623098, 0.424617, 0.5552803, 0.13136022, 0.119330056, 0.18967268, 0.28916353}, 
			{-0.15198714, 0.08787909, -0.22117922, 0.13170445, 0.21121725, 0.3779978, 0.5002717, -0.589664, -0.095507234, 0.0032303715, 0.1968184, -0.04273586, 0.10053877, 0.3749569, -0.007719826, 0.40384978, -0.10676392, -0.21767437, -0.1262835, 0.3427976, 0.43366194, 0.28595716, 0.11402102, 0.27758217, 0.3210721, 0.457802, 0.31668353, 0.46385175, 0.2510078, -0.6725643, 0.20942612, 0.07948374}, 
			{0.019949405, 0.14680198, -0.014490763, 0.2525878, 0.02064796, -0.60251147, 0.097678855, -0.24803843, -0.09076249, 0.43649867, 0.030456543, -0.27278757, 0.3806239, 0.0043528853, 0.123408124, -0.025752537, -0.42126617, -0.1941751, 0.4280777, -0.17133749, 0.08897177, 0.3189297, 0.17513482, 0.4856252, -0.29683244, -0.008848684, 0.09067652, 0.2319995, 0.17885962, 0.018959975, -0.019839408, 0.42678332}, 
			{-0.05041198, 0.52415484, 0.24289432, 0.030066194, 0.11354987, -0.79123557, -0.123220704, 0.06087987, 0.0017666668, 0.43428323, -0.7335765, -0.4035401, 0.18634175, 0.17133711, -0.017508432, 0.13686797, -0.14039889, -0.053258505, 0.32830766, -0.537631, 0.039953757, 0.090046465, 0.12518987, 0.019825034, -0.3510904, -0.5353983, 0.17411713, 0.039365295, 0.46705055, 0.36419412, -0.0012561337, 0.06089797}, 
			{-0.2439249, 0.021894721, 0.12067587, -0.15466253, 0.03509493, -0.33863267, -0.31165245, 0.36434352, -0.2680199, 0.29538125, -0.8033552, -0.23554686, 0.13731067, 0.23693079, 0.06572335, 0.13614331, -0.5755514, -0.07954502, 0.06441797, -0.37344527, -0.08103358, 0.21168743, -0.37137893, 0.09430837, 0.19602452, -0.46000612, 0.13087088, 0.03036947, 0.62078804, 0.55834526, -0.65130776, 0.12542848}, 
			{-0.5295069, -0.10107283, -0.14157115, -0.71860254, -0.007817524, 0.3171701, 0.14412722, -0.1630813, -0.7613621, -0.55656093, 0.14453243, 0.42853653, 0.5033143, 0.2959093, 0.3413853, -0.49823514, -0.21199206, 0.23732252, 0.089184046, 0.18699808, -0.1381021, -0.27653137, -0.8858788, -0.26307276, -0.42883062, -0.30530232, 0.21371508, 0.56274104, 0.37019208, -0.46798033, -1.0419796, 0.6969448}, 
			{0.6830143, 0.29941493, 0.9596676, -0.27292362, 0.26118034, -0.9715081, 0.7400061, 0.09672693, -0.5184903, 0.57181346, 0.94611937, -0.11427948, 0.25748593, 0.9150992, -0.6531302, -0.5215641, 0.46804008, -0.0029872917, -0.27049455, 0.40484613, 0.6239057, -0.8409836, 0.40613887, -0.6876985, 0.23074235, -0.51256055, -0.19996226, 0.42890456, 0.17131041, 0.577868, -0.6572205, -0.106608264}, 
			{0.34237257, 0.095301434, 0.3831949, -0.35245067, -0.35383427, -0.9964215, 0.30312315, -0.0014210646, -0.53280365, 0.37515047, 0.46437803, -0.11045007, -0.15698269, 0.1659028, -0.16476639, -0.05423853, 0.3915334, 0.23371086, -0.20209007, 0.47315657, -0.55127037, -0.5878708, 0.1037615, -0.11669499, 0.041112415, -0.21612926, -0.1658355, 0.3469569, 0.3850202, 0.44566336, -0.6238095, 0.12695326}, 
			{-0.27231988, -0.1604336, -0.07950508, -0.0046837847, -0.18264548, -0.86667407, -0.26590484, -0.1184825, 0.01767659, 0.15438004, 0.39018118, 0.24755217, -0.04988324, 0.256121, 0.055063322, 0.09211792, -0.4124821, 0.16968685, 0.15327367, 0.25642848, -0.32793516, 0.12007691, -0.19600162, 0.3630746, -0.03353804, -0.5108069, 0.20658971, 0.23816404, -0.13049084, 0.19126892, -0.5083008, 0.40963235}, 
			{-0.03990645, -0.47686133, -0.2052878, 0.4249544, 0.035479262, 0.23925239, -0.39055872, -0.05590145, 0.47115704, -0.19366719, 0.023474494, 0.14627528, 0.009930127, -0.08444457, 0.07888795, 0.23679216, -0.1829134, 0.12592709, 0.27751577, 0.15569252, -0.3536393, 0.30101416, -0.26522964, 0.30400062, -0.13073376, -0.1835574, 0.29084358, 0.39751127, 0.20749073, -0.32363966, 0.6311384, 0.096590154}, 
			{-0.3289416, -0.26524428, -0.72412676, 0.40592495, 0.47175485, 0.46204662, -0.011108226, -0.23358083, -0.07735216, -0.167378, 0.6510948, 0.30041063, -0.040716704, 0.36691585, 0.2200155, 0.0421347, -0.1526055, -0.08586157, 0.24699521, 0.32901654, 0.008530486, 0.21481691, -0.1455714, -0.17913695, 0.018101344, 0.14915447, 0.3915538, 0.2599015, 0.28284392, -0.47848105, 0.42115602, 0.0009482153}, 
			{-0.2269284, 0.059699036, 0.3370131, 0.15985931, 0.26000684, 0.06059578, 0.09106694, -0.28637323, -0.24945416, 0.3297985, 0.10744298, -0.1189082, 0.14557403, 0.5054134, 0.1845372, 0.24851991, -0.29901043, 0.26864237, 0.23350573, -0.19328965, 0.1113963, 0.371057, -0.00060960604, 0.28498524, 0.014624157, 0.23673187, 0.22168869, 0.29372022, 0.1423733, -0.0062825535, -0.42327213, 0.35426643}, 
			{0.0036572448, -0.16201513, 0.23447362, -0.22560751, -0.008632406, -0.57223713, 0.1094416, 0.21552563, -0.21719047, 0.32133725, -0.1122266, -0.32280794, 0.09936937, -0.08127171, 0.20073846, 0.25548193, 0.15584958, -0.092659265, 0.3530771, -0.087658405, -0.29298383, 0.053695995, 0.29291323, 0.17895825, -0.07088614, -0.380235, 0.22576961, 0.015826933, 0.4195079, 0.21603395, -0.1599083, 0.38602895}, 
			{0.16426677, -0.0052046794, 0.1132229, 0.06347332, -0.145311, -0.14546284, 0.098414324, 0.100878865, -0.28622392, 0.12582454, -0.52208567, -0.42728958, 0.023598105, 0.07677259, 0.15318105, 0.12324311, 0.033987783, 0.15030375, -0.14710566, -0.18757114, -0.2662165, -0.07959502, -0.18129991, -0.2563571, 0.16774651, -0.68682426, 0.26358724, 0.031347286, 0.12390548, 0.26234388, -0.21342167, -0.051613964}, 
			{0.02592213, -0.20398778, 0.24080855, 0.00067081203, -0.20634054, 0.009859634, 0.33881107, -0.022918377, -0.46006587, -0.21484818, -0.37568155, 0.28220657, 0.20856757, 0.22928238, 0.24849635, 0.25802413, 0.2928276, -0.061957505, -0.07487578, -0.15224817, -0.36274314, -0.43479663, -0.45113, -0.16511, 0.019192642, -0.6236675, 0.117601134, 0.23703472, 0.21815887, 0.2628243, -0.27342588, 0.37278628}, 
			{-0.69096434, -0.21988766, 0.24985622, -0.15712863, 0.31306243, 0.61267674, -0.06454143, -0.10053775, -0.62574047, -0.46521604, 0.06430345, 0.5458437, 0.6979154, -0.100636244, 0.40582335, -0.4088768, -0.43459263, 0.51557666, 0.31957594, 0.33679125, -0.6072581, -0.37597463, -0.43758446, -0.3985249, -0.21249579, -0.43111295, -0.25304776, 0.5946409, 0.4464948, -0.6532933, -0.6812504, 0.45475554}, 
			{0.60559666, 0.3980031, 0.8384616, -0.50793856, 0.64431924, -0.852594, 0.46636137, 0.27599594, -0.42746943, 0.4239061, 0.6655466, -0.15161256, 0.09072044, 0.7911975, -0.33400375, -0.3922249, 0.1783869, -0.05588316, -0.39008963, 0.48996606, 0.58305055, -0.73444295, 0.47277525, -0.61012256, -0.07543537, -0.35053757, -0.050915625, 0.0866008, -0.06731768, 0.6213707, -0.8615371, -0.13727407}, 
			{0.2030209, -0.24848975, 0.27116597, -0.3058513, 0.0834489, -0.29655752, 0.11734425, 0.29154453, -0.327359, 0.040018227, -0.17526177, 0.2710107, -0.24497263, -0.3893722, 0.13262112, -0.12574561, 0.044947807, -0.09513556, -0.09618458, 0.04977239, -0.2774661, -0.21503972, -0.2461335, 0.0041404185, 0.09322979, -0.0707189, -0.15717876, 0.35695696, 0.222441, 0.31564388, -0.1604517, 0.3952839}, 
			{0.09213353, -0.45906988, 0.031994857, -0.24268563, -0.02259685, -0.06897584, 0.20647821, 0.168955, 0.20189823, -0.2631623, 0.063782535, 0.36420923, -0.52361345, -0.26072195, 0.028019844, 0.040781677, 0.33158264, 0.14841305, -0.25923535, 0.31793663, -0.13205004, -0.10343551, -0.19730379, 0.051644947, 0.17157719, 0.025804227, 0.19577757, 0.36504382, -0.18074018, -0.071164176, -0.13473588, 0.151643}, 
			{0.2932794, -0.4660533, 0.0961041, -0.32211003, 0.08989822, 0.25628424, -0.051351756, 0.11711954, 0.21864848, -0.060899954, 0.36492273, 0.2378637, -0.1823021, 0.032922927, 0.4449489, -0.06842222, 0.08861074, 0.11707153, -0.0608239, 0.314329, -0.16942722, -0.15226799, -0.27728832, 0.07308714, 0.17022206, -0.13711606, 0.10951755, 0.4478924, 0.35103998, 0.47135067, 0.1684976, 0.14603089}, 
			{0.15642248, -0.089789495, -0.07988087, -0.0010332292, 0.14916864, 0.33096883, -0.20938215, 0.31333876, 0.051049095, -0.21362594, 0.44839424, 0.00021542152, 0.20702673, 0.062302776, 0.4156848, 0.03672841, -0.07588281, 0.32078102, 0.031181656, -0.08811078, -0.12811214, 0.11630716, -0.037574947, -0.22114179, -0.1803411, -0.025293937, 0.3250357, 0.36958024, 0.49275863, 0.40151376, 0.07420687, -0.35528705}, 
			{-0.023402741, 0.19307587, 0.5721056, 0.03650004, -0.14311406, 0.2202532, 0.2493832, -0.010219149, -0.07599685, -0.010876747, 0.13922502, -0.053408757, -0.06514809, 0.101628505, 0.33616656, 0.2871766, 0.3318078, 0.19780684, 0.1672406, -0.059653375, -0.24856019, 0.102520496, 0.09104046, 0.03466635, -0.039956104, -0.27348885, 0.44625965, 0.33752975, 0.20149997, 0.33302078, -0.16300231, -0.47670725}, 
			{0.02022785, 0.0016981139, 0.3989766, -0.018480053, -0.22356643, 0.4363685, 0.4550765, 0.18705243, -0.115397125, 0.04184256, -0.49946386, -0.005369691, -0.22046696, 0.107871555, 0.23751672, 0.427309, 0.29278678, -0.09410634, -0.122148134, 0.021768603, -0.20448872, 0.20182273, -0.051455975, 0.035680864, 0.052739255, -0.7148781, 0.28335404, 0.2853174, -0.085543804, 0.037368875, -0.1938037, 0.14853674}, 
			{0.009866534, -0.21129343, 0.4409448, 0.0039343894, -0.27620426, 0.45670682, 0.32187214, 0.19369128, -0.06388718, -0.08381937, -0.63565403, 0.3769513, 0.11909359, -0.19295487, 0.28123376, 0.30603465, 0.5964336, 0.20020401, -0.31056535, 0.15186548, -0.00832412, -0.034764335, -0.20767644, 0.19174941, -0.17019118, -0.8390524, 0.3479104, 0.1831857, -0.4441099, 0.05082996, 0.1271094, -0.03330541}, 
			{0.10188052, -0.5942408, 0.418384, -0.1108013, -0.0962007, -0.10406151, 0.00090767734, 0.31689104, -0.057314266, -0.29352167, -0.17752022, 0.44461265, -0.049831167, -0.03722301, -0.06670583, -0.17559627, 0.29581875, 0.24054043, -0.06152341, 0.24850003, 0.07083013, -0.53341335, -0.52498144, -0.3861559, -0.5494805, -0.31842586, 0.46011934, 0.27383903, -0.2725132, 0.03582581, 0.32035533, -0.07916113}, 
			{-0.45993316, -0.25992525, 0.6290963, -0.029356191, 0.116983905, 0.7416721, -0.2143015, 0.06262182, -0.49804997, -0.46116006, 0.07572709, 0.034692477, 0.6313607, 0.00040310094, 0.13326839, 0.059188824, -0.33829543, 0.18234304, 0.023238348, 0.14439355, -0.4499963, -0.6091674, -0.44797775, -0.2278348, -0.16183713, -0.0039070756, -0.34375858, 0.18535526, 0.094276175, -0.24083586, -0.23021051, 0.3090801}, 
			{0.6562948, 0.2654966, 1.2085346, -0.2965298, 0.32279, -0.83532876, 0.4636155, 0.4479795, -0.49829447, 0.43429622, 0.652006, -0.093810245, 0.015533817, 0.81626785, -0.43359882, -0.13967092, 0.49608624, -0.4389562, -0.186293, 0.51918894, 0.6888673, -0.7018896, 0.57526565, -0.3550395, 0.25532672, -0.49351907, -0.44277632, 0.12763281, -0.09319576, 0.35890886, -0.742886, -0.14108951}, 
			{0.1836579, 0.0055837184, 0.70451266, -0.28064257, 0.35929036, -0.069300264, 0.2795315, 0.013821161, -0.41126856, 0.22709318, 0.16236995, -0.30408636, 0.021164795, 0.16288066, -0.056028426, 0.13620657, 0.19276333, -0.27889076, -0.39459515, 0.16129848, -0.26499584, -0.38148445, -0.098484576, -0.4832109, 0.25416157, -0.2344309, -0.2722101, 0.20899454, -0.048461534, 0.3862494, -0.10497866, -0.055425595}, 
			{0.0034827169, -0.30994216, 0.08907335, -0.0648485, 0.3834827, 0.13426337, 0.18285394, 0.15440974, 0.22932056, 0.043645605, 0.1318279, 0.08863024, 0.28639033, -0.14507817, -0.084525965, 0.1597961, 0.2843184, 0.053027615, 0.009058699, 0.07561744, 0.04842073, -0.12855616, -0.24211118, 0.1590589, 0.24627289, 0.09889318, -0.36175066, 0.2772363, -0.23181342, 0.08924381, -0.06556048, 0.22385482}, 
			{0.27683437, 0.14252579, 0.12569515, -0.16897675, -0.06760755, 0.084025845, 0.088644944, 0.35844868, 0.12026109, 0.04987334, -0.108644485, 0.251923, 0.09516054, -0.112757914, 0.16464981, -0.15678564, 0.14704947, 0.17965178, 0.036430135, 0.17825356, 0.11740451, 0.11495069, 0.26893198, 0.35340804, 0.07475602, 0.11107178, 0.12701927, 0.24660823, -0.3656027, 0.3204369, -0.117668994, 0.25901136}, 
			{0.11690527, 0.19691761, 0.017674414, -0.10271696, -0.036939334, -0.15045267, 0.07299241, 0.36722028, 0.34971052, -0.14788471, -0.17653072, 0.32934347, 0.28037202, -0.024208654, 0.033127945, -0.36177745, 0.45957226, 0.062190022, -0.023206674, 0.18327902, 0.30107203, 0.05693007, 0.012889226, 0.3326613, -0.13681503, -0.12416962, 0.45697898, 0.15875441, -0.5932327, 0.25387233, 0.059557516, -0.13704626}, 
			{0.1467412, 0.17897256, 0.058525704, -0.07242601, 0.056780078, 0.23747554, -0.015268553, 0.45247293, 0.26470867, 0.029572627, -0.14836429, 0.24576378, -0.13974078, 0.2035158, 0.08936542, -0.3336034, 0.30942658, 0.15668307, 0.042969603, 0.0708002, 0.3061717, -0.0007028318, -0.04103102, 0.3024014, 0.10966857, 0.058693998, 0.45666134, 0.054459363, -0.4438751, 0.1282504, -0.06496751, -0.25164723}, 
			{0.21664551, -0.069961675, 0.15410227, -0.027529042, 0.14009632, 0.5218177, 0.18412519, 0.03345574, -0.06647759, 0.105247594, -0.48207915, 0.273305, -0.20383088, 0.15235272, -0.10556699, -0.032107614, 0.5532926, 0.15285698, -0.06451977, 0.07799705, 0.20942046, 0.093896925, 0.09933087, 0.41218922, 0.11003207, 0.04489344, 0.37205055, -0.036308933, -0.5056656, -0.1987843, -0.08371791, 0.10600566}, 
			{0.080480866, -0.71530807, 0.17977732, 0.13781874, -0.24941337, 0.6434466, 0.13294373, 0.08031946, -0.10098283, 0.019211147, -0.7046296, -0.05135081, -0.15917514, -0.11321768, -0.098598346, 0.26211974, 0.23095939, 0.1219426, -0.25460637, 0.22479741, 0.31303343, 0.040806346, -0.03034797, 0.21245083, -0.6390446, -0.22141545, 0.04233718, 0.034297895, -0.47298613, -0.21047908, -0.25846842, 0.30257}, 
			{-0.10127366, -0.6587933, 0.16318746, 0.14197314, -0.4213675, 0.34126678, -0.21170396, 0.075168036, 0.057505637, -0.14522941, -0.32634494, 0.14591491, 0.19161469, -0.27374893, -0.044240512, 0.4365596, 0.10410423, 0.27105087, 0.28383115, -0.048547655, 0.045259006, -0.20635912, -0.29269016, 0.03167936, -0.73206204, -0.4220769, 0.30785596, 0.0030877073, -0.6819893, -0.15554959, -0.27636075, 0.25180912}, 
			{-0.5631863, -0.21004716, 0.5668809, -0.20104511, -0.1755981, 0.92615855, -0.06213416, 0.2258586, -0.53874934, -0.20508173, 0.017994752, 0.19231862, 0.3355015, -0.09489442, 0.011208005, -0.33541504, -0.37767476, 0.41803518, 0.46119112, 0.25287926, -0.34039375, -0.337947, -0.77390796, -0.29203603, -0.33442977, -0.081835404, -0.0029234563, 0.44333243, 0.04032054, -0.03324265, -0.41154417, 0.21285345}, 
			{0.6896817, 0.15638722, 0.4448456, -0.056041494, 0.26018423, -0.69340944, 0.4707829, -0.17198274, -0.036904488, 0.71280146, 0.12590593, -0.6289882, 0.3607109, -0.27996668, -0.4090825, -0.10279976, 0.38838533, -0.5362727, -0.35802725, 0.03866151, 0.41215748, -0.19960041, 0.50891596, -0.101465836, 0.41550702, -0.018811917, -0.71062887, -0.066258594, -0.5449445, 0.41586718, -0.48093185, -0.45092615}, 
			{0.33637425, 0.21111815, 0.1835087, -0.0081256125, 0.37869087, -0.83299726, 0.32807887, -0.12118583, 0.20792012, 0.76719636, 0.001944459, -0.8058932, 0.26951846, -0.6454847, -0.47414726, 0.03417589, -0.030455366, -0.18946025, -0.0047417, -0.29842767, 0.42987552, 0.0019367519, 0.36050722, 0.20974953, 0.5072102, 0.053811833, -0.64069176, -0.14468937, -0.3933233, 0.5333555, -0.11856725, -0.48227584}, 
			{0.44288528, 0.23512988, 0.023459153, 0.18272227, 0.05360516, -0.6677757, 0.6910764, -0.22446662, 0.17516051, 0.6839359, -0.56637114, -0.45021197, 0.23148511, -0.62916726, -0.023752568, 0.066981286, 0.11694379, -0.3920813, -0.109780855, -0.13778946, -0.16972695, -0.10605204, 0.39090818, 0.3555153, 0.6139016, -0.020172851, -0.46435052, -0.16235544, -0.21532093, 0.14478254, -0.46220666, -0.16978414}, 
			{0.3785845, 0.49559015, 0.6232467, 0.17051166, 0.28233215, -0.64567083, 0.8368436, -0.20599662, 0.15576309, 0.6518763, -0.16434844, -0.30539748, 0.12398392, -0.37684396, -0.062006544, 0.22422041, 0.34868515, -0.1410477, -0.041469317, -0.19986278, 0.12571399, -0.20128508, 0.42443246, 0.19844708, 0.17305583, 0.019144986, -0.2624253, 0.15093184, -0.48727557, 0.14364807, -0.7894312, -0.49509305}, 
			{0.6230397, 0.1327484, 0.43239245, 0.21775855, -0.01680797, -0.6551676, 0.84329104, 0.0975563, 0.41924387, 0.5627091, 0.06419614, -0.45155922, 0.38684312, -0.35392097, 0.21362585, 0.016593125, 0.22975041, -0.20427568, 0.038560033, 0.02368022, 0.042310514, -0.4818591, 0.4148623, 0.13872272, 0.060049698, 0.04448109, -0.22005616, 0.05232997, -0.12968859, 0.015971903, -0.5525593, -0.6910359}, 
			{0.24830574, 0.13707052, 0.25615937, 0.33620524, 0.34181994, -0.8260105, 0.3187577, -0.049647138, 0.3244633, 0.0995779, -0.28049493, 0.18924233, 0.45584893, -0.44033924, 0.14719994, -0.20344503, 0.0022138173, -0.00684786, 0.19283687, 0.014415537, -0.04404996, -0.28600213, 0.45572674, 0.26617435, 0.14519078, 0.20288837, -0.02041433, 0.27209786, -0.31370318, -0.26852816, -0.8655019, -0.4938596}, 
			{0.56897014, 0.06871161, 0.20596957, 0.2345932, 0.42086652, -0.74399483, 0.2099829, 0.1681391, 0.51206064, 0.0054080933, -0.2936858, 0.05759913, 0.14983344, -0.6869736, 0.14971118, -0.25734684, -0.18780828, -0.12015104, 0.43682724, -0.14596392, -0.16912875, -0.3452837, 0.69859505, 0.4543947, 0.36873406, 0.55766696, -0.15421976, -0.21001345, -0.15045609, -0.55203456, -0.953256, -1.0566826}, 
			{0.4126336, 0.2845661, 0.21665846, 0.29671752, -0.38866737, -0.024194706, 0.36600825, -0.10549796, 0.47908473, -0.0066610537, -0.26138142, -0.08116514, 0.31650677, -0.6412318, -0.38865897, 0.24695401, -0.09460124, -0.43214172, 0.30259505, -0.48418596, 0.049777873, -0.028466312, 0.65332186, 0.4383517, 0.07535877, 0.34763303, -0.20493764, -0.022445267, -0.41326487, -0.30804256, -0.45276955, -0.43270373}, 
			{0.41048825, -0.25069556, 0.31636506, 0.009171003, -0.60129625, 0.045928787, 0.12627594, 0.15908428, 0.055289686, 0.40666327, 0.17149356, -0.19581103, -0.13780746, 0.14691307, -0.49540055, -0.13430092, -0.15302378, 0.046085943, 0.24530636, -0.5589136, 0.5023861, -0.22757688, 0.5640492, 0.106774576, 0.078338124, 0.44089702, 0.06364057, -0.03721863, -0.78880644, -0.078280225, -0.1297307, -0.5854259}, 
			{-0.018470537, -0.24664627, -0.041024737, 0.048352655, -0.40952772, 0.24066436, 0.079771325, 0.092823595, 0.44198486, -0.07990858, 0.3857588, -0.019361459, 0.13001336, -0.6051011, 0.019245401, 0.43047532, 0.13718633, 0.4147505, 0.2108364, 0.089143306, -0.21647385, -0.34052217, -0.17809285, 0.008958895, -0.01817352, -0.054989994, -0.1816599, 0.16772027, 0.0029609837, 0.19833596, -0.010378495, -0.019902226}};

}